~o
<STREAMINFO> 1 39
<VECSIZE> 39<NULLD><MFCC_D_A_0><DIAGC>
~h "jungji"
<BEGINHMM>
<NUMSTATES> 5
<STATE> 2
<MEAN> 39
 -1.208175e+01 4.585880e+00 2.472039e+00 5.613989e+00 5.222878e+00 6.210182e+00 6.524890e+00 7.248741e+00 7.737937e+00 7.546073e+00 7.423439e+00 6.282580e+00 4.408395e+01 -2.968998e-02 -2.470442e-02 -1.370548e-02 -1.268161e-02 -1.916598e-02 -1.902371e-02 -1.160715e-02 -7.565918e-03 -5.432376e-03 1.738325e-03 9.482275e-03 1.058551e-02 -1.400160e-02 -1.718180e-03 -4.535937e-03 -3.639209e-03 -4.230402e-03 -4.321394e-03 -4.618981e-03 -6.237866e-03 -6.205346e-03 -5.135261e-03 -6.336757e-03 -5.827761e-03 -5.397620e-03 2.029820e-04
<VARIANCE> 39
 2.310546e+00 3.195476e+00 4.545895e+00 5.764330e+00 7.000524e+00 8.880117e+00 9.556911e+00 1.015562e+01 1.051165e+01 1.074363e+01 1.163443e+01 1.103625e+01 9.127465e-01 1.226544e-01 2.611586e-01 4.217487e-01 5.942236e-01 7.393085e-01 9.102981e-01 1.036886e+00 1.112411e+00 1.145294e+00 1.151460e+00 1.164718e+00 1.101330e+00 3.241811e-02 2.127588e-02 4.835938e-02 8.065457e-02 1.173054e-01 1.465973e-01 1.813387e-01 2.096137e-01 2.251115e-01 2.302915e-01 2.315357e-01 2.321263e-01 2.196674e-01 5.919249e-03
<GCONST> 5.789859e+01
<STATE> 3
<MEAN> 39
 -1.251282e+01 3.109655e+00 1.351722e+00 4.577515e+00 3.900782e+00 4.892034e+00 5.462096e+00 6.532801e+00 6.924150e+00 6.779885e+00 6.908743e+00 5.701057e+00 4.420896e+01 2.981207e-02 -1.670495e-02 9.187176e-03 8.813821e-03 4.732973e-03 2.041149e-02 2.690245e-02 2.668421e-02 1.240073e-02 -1.332995e-02 -9.874430e-03 -1.832130e-03 3.054994e-02 1.876210e-02 -5.955005e-02 3.342418e-02 -4.528326e-03 -5.232895e-03 2.493440e-02 6.410538e-03 3.305929e-02 1.768881e-02 4.761506e-03 1.498342e-02 8.660736e-04 5.163225e-02
<VARIANCE> 39
 3.476022e+00 5.753810e+00 6.238739e+00 7.680128e+00 1.001915e+01 1.231001e+01 1.321958e+01 1.386261e+01 1.411988e+01 1.350724e+01 1.403456e+01 1.352412e+01 2.014111e+00 1.876672e-01 5.998661e-01 5.720434e-01 7.812943e-01 1.021966e+00 1.137878e+00 1.345712e+00 1.391987e+00 1.435020e+00 1.389543e+00 1.287032e+00 1.334388e+00 1.583325e-01 3.666606e-02 1.807720e-01 1.231399e-01 1.687115e-01 2.224552e-01 2.310984e-01 2.786334e-01 2.907798e-01 2.997162e-01 2.848794e-01 2.607125e-01 2.757618e-01 5.860396e-02
<GCONST> 7.464063e+01
<STATE> 4
<MEAN> 39
 -2.690691e+00 1.760012e+00 3.628049e+00 4.196212e+00 9.688975e+00 9.880391e+00 4.418515e+00 6.428935e+00 7.408960e+00 2.240097e+00 1.998556e+00 2.280832e+00 5.427027e+01 2.484600e-03 7.492813e-03 4.829971e-03 5.262249e-03 4.825437e-03 2.213268e-03 1.168441e-03 1.102890e-03 2.798823e-03 3.741940e-03 2.821172e-03 1.750459e-03 -7.740950e-04 -9.961252e-04 5.678039e-03 -1.381226e-03 1.571132e-03 2.008006e-03 -2.725563e-04 6.704837e-04 -1.441444e-03 -1.219382e-04 7.082288e-04 8.627248e-05 9.846821e-04 -3.959561e-03
<VARIANCE> 39
 7.500996e+01 7.406044e+01 2.337425e+01 2.455245e+01 3.529551e+01 4.978548e+01 5.034015e+01 3.627519e+01 1.961558e+01 4.109877e+01 3.591322e+01 2.885312e+01 8.204050e+01 8.047429e-01 1.981664e+00 1.214935e+00 1.143785e+00 1.259875e+00 1.515080e+00 1.767488e+00 1.716502e+00 1.476022e+00 1.456618e+00 1.412104e+00 1.354586e+00 8.230760e-01 9.467276e-02 2.582291e-01 2.165888e-01 1.921794e-01 2.326937e-01 2.562770e-01 3.022701e-01 2.938458e-01 2.816866e-01 2.755530e-01 2.661635e-01 2.456563e-01 1.076117e-01
<GCONST> 1.038042e+02
<TRANSP> 5
 0.000000e+00 1.000000e+00 0.000000e+00 0.000000e+00 0.000000e+00
 0.000000e+00 9.836019e-01 1.639809e-02 0.000000e+00 0.000000e+00
 0.000000e+00 0.000000e+00 9.519144e-01 4.808557e-02 0.000000e+00
 0.000000e+00 0.000000e+00 0.000000e+00 9.963323e-01 3.667640e-03
 0.000000e+00 0.000000e+00 0.000000e+00 0.000000e+00 0.000000e+00
<ENDHMM>
~h "sangseung"
<BEGINHMM>
<NUMSTATES> 5
<STATE> 2
<MEAN> 39
 -1.215055e+01 1.311415e+00 -8.013272e-01 1.607907e+00 1.594514e+00 3.066421e+00 2.518079e+00 3.056925e+00 3.793348e+00 4.195886e+00 4.013725e+00 2.599203e+00 4.971315e+01 -8.209049e-03 4.605157e-03 -4.620159e-04 2.134155e-03 4.983026e-04 6.799730e-04 -1.628371e-04 -3.781249e-03 -4.968286e-03 1.855575e-04 -3.102471e-03 -6.053162e-03 2.949124e-02 -1.055467e-04 2.451905e-03 6.119850e-04 2.681110e-03 8.816907e-04 7.524982e-04 2.382651e-03 -6.431143e-04 -2.774992e-04 1.008358e-03 2.951737e-03 5.738074e-03 -1.227048e-03
<VARIANCE> 39
 7.054831e+00 1.131558e+01 9.205630e+00 1.127616e+01 1.168655e+01 1.347381e+01 1.567143e+01 1.918196e+01 1.773474e+01 1.734307e+01 1.833436e+01 1.883947e+01 3.709517e+01 3.256715e-01 6.009219e-01 6.400815e-01 9.541111e-01 1.035397e+00 1.141287e+00 1.403932e+00 1.594047e+00 1.556181e+00 1.491703e+00 1.463211e+00 1.531067e+00 5.911163e-01 6.440739e-02 1.193559e-01 1.285287e-01 1.927065e-01 2.055603e-01 2.256011e-01 2.783803e-01 3.216500e-01 3.121383e-01 2.988509e-01 2.916332e-01 3.066097e-01 1.021015e-01
<GCONST> 8.550398e+01
<STATE> 3
<MEAN> 39
 -1.199415e+01 3.153421e+00 3.513651e-01 2.664077e+00 1.834952e+00 3.284820e+00 3.236035e+00 3.735577e+00 4.479577e+00 4.511081e+00 4.246402e+00 3.251035e+00 4.392719e+01 -8.554329e-03 -4.171322e-03 2.451072e-03 2.815368e-03 -1.243529e-04 -4.988927e-03 -2.520314e-03 4.293484e-04 2.470894e-03 4.107426e-03 8.377587e-03 1.059724e-02 -4.700442e-03 2.369346e-03 -2.081838e-03 -5.957909e-04 -9.404891e-04 -2.224386e-03 -1.256378e-03 -8.292501e-05 1.377256e-03 2.811795e-04 -1.876826e-03 -1.659934e-03 -2.220386e-03 2.706595e-03
<VARIANCE> 39
 4.661114e+00 5.694697e+00 6.439719e+00 9.546719e+00 1.202823e+01 1.267432e+01 1.538081e+01 1.836128e+01 1.725190e+01 1.655994e+01 1.817010e+01 1.731462e+01 1.754161e+00 1.004528e-01 2.363835e-01 3.919577e-01 5.814675e-01 7.596831e-01 9.347203e-01 1.098555e+00 1.232737e+00 1.288023e+00 1.308093e+00 1.279647e+00 1.226413e+00 3.206589e-02 1.913132e-02 4.690756e-02 7.817145e-02 1.172624e-01 1.532398e-01 1.890799e-01 2.253353e-01 2.515531e-01 2.614318e-01 2.687496e-01 2.609336e-01 2.515497e-01 6.413708e-03
<GCONST> 6.543893e+01
<STATE> 4
<MEAN> 39
 -2.892883e+00 1.354280e+00 3.717331e+00 1.027039e-01 3.515118e+00 4.490875e+00 3.324784e+00 6.219489e+00 4.592389e+00 3.066978e+00 4.622729e+00 3.208658e+00 5.605295e+01 -6.566035e-04 -1.931962e-05 6.072356e-04 1.299117e-03 2.043095e-03 2.981965e-03 2.812441e-03 1.969696e-03 2.229013e-03 2.790392e-03 3.601253e-03 2.913280e-03 4.058373e-05 -7.008495e-04 5.050717e-04 1.315970e-05 1.161100e-04 4.660453e-04 4.053043e-04 -7.230746e-05 -3.330416e-04 -4.328610e-05 2.851651e-04 4.265316e-04 3.029956e-04 -7.319356e-04
<VARIANCE> 39
 1.020678e+02 7.751575e+01 4.179573e+01 3.409680e+01 2.152109e+01 4.279810e+01 4.354775e+01 3.062911e+01 2.753036e+01 2.747457e+01 2.702846e+01 2.302116e+01 1.100667e+02 7.003839e-01 9.919714e-01 1.037002e+00 1.029965e+00 1.018058e+00 1.251149e+00 1.454066e+00 1.396705e+00 1.455576e+00 1.392791e+00 1.366945e+00 1.187313e+00 4.825087e-01 6.650496e-02 1.411410e-01 1.663226e-01 1.719208e-01 1.888485e-01 2.249884e-01 2.614201e-01 2.601353e-01 2.736787e-01 2.620932e-01 2.501904e-01 2.248586e-01 6.350989e-02
<GCONST> 9.847498e+01
<TRANSP> 5
 0.000000e+00 1.000000e+00 0.000000e+00 0.000000e+00 0.000000e+00
 0.000000e+00 9.607189e-01 3.928108e-02 0.000000e+00 0.000000e+00
 0.000000e+00 0.000000e+00 9.901767e-01 9.823261e-03 0.000000e+00
 0.000000e+00 0.000000e+00 0.000000e+00 9.971693e-01 2.830718e-03
 0.000000e+00 0.000000e+00 0.000000e+00 0.000000e+00 0.000000e+00
<ENDHMM>
~h "sidong"
<BEGINHMM>
<NUMSTATES> 5
<STATE> 2
<MEAN> 39
 -1.187462e+01 4.594319e+00 2.451398e+00 5.401884e+00 4.903485e+00 5.901526e+00 6.225869e+00 7.054477e+00 7.524088e+00 7.217635e+00 6.991771e+00 5.796870e+00 4.423636e+01 -2.950292e-02 -2.543954e-02 -1.496184e-02 -1.174842e-02 -1.021240e-02 -1.578022e-02 -1.575434e-02 -1.492270e-02 -1.284244e-02 -6.232179e-03 -3.531270e-04 2.789915e-03 -1.438557e-02 -4.226382e-03 -8.063688e-03 -9.521208e-03 -8.805364e-03 -9.427327e-03 -1.036591e-02 -1.090020e-02 -1.034572e-02 -1.133541e-02 -1.106825e-02 -8.788017e-03 -8.801135e-03 -1.313420e-03
<VARIANCE> 39
 2.183132e+00 3.051452e+00 4.403240e+00 6.206696e+00 7.485395e+00 9.051051e+00 9.572788e+00 1.042780e+01 1.128636e+01 1.171554e+01 1.255982e+01 1.175914e+01 9.127465e-01 1.189597e-01 2.513760e-01 4.078446e-01 5.948808e-01 7.562934e-01 8.930534e-01 1.024682e+00 1.145261e+00 1.222261e+00 1.239831e+00 1.223877e+00 1.155903e+00 3.230350e-02 2.083749e-02 4.586818e-02 7.730718e-02 1.151062e-01 1.488698e-01 1.764755e-01 2.034606e-01 2.285027e-01 2.432843e-01 2.477295e-01 2.449679e-01 2.305091e-01 5.769791e-03
<GCONST> 5.843994e+01
<STATE> 3
<MEAN> 39
 -1.290500e+01 3.037769e+00 1.079567e+00 4.273054e+00 3.756482e+00 4.745476e+00 5.060244e+00 5.930793e+00 6.411987e+00 6.340373e+00 6.384678e+00 5.192875e+00 4.388059e+01 1.394275e-02 -3.282632e-02 -1.961535e-02 1.113598e-02 -2.008233e-03 -1.091896e-02 -1.639286e-02 -1.027589e-02 -1.651846e-03 -9.476164e-03 -3.194289e-02 -3.160195e-02 1.726394e-02 1.817144e-02 -2.115682e-02 1.157959e-03 1.234383e-02 9.098133e-03 1.867232e-02 1.101361e-02 1.592590e-02 2.248837e-02 1.027371e-02 -4.057416e-04 -6.271385e-03 2.104016e-02
<VARIANCE> 39
 2.700614e+00 3.946193e+00 5.510133e+00 7.451767e+00 9.215532e+00 1.111642e+01 1.181902e+01 1.296124e+01 1.381512e+01 1.404280e+01 1.446509e+01 1.415783e+01 1.266038e+00 1.610789e-01 3.903814e-01 5.166831e-01 7.071609e-01 9.214503e-01 1.066241e+00 1.255845e+00 1.371952e+00 1.448877e+00 1.443653e+00 1.376401e+00 1.373480e+00 9.887566e-02 3.087310e-02 9.088033e-02 1.027418e-01 1.425253e-01 1.881517e-01 2.175037e-01 2.551417e-01 2.797960e-01 2.955120e-01 2.929399e-01 2.764212e-01 2.804013e-01 2.335642e-02
<GCONST> 6.936259e+01
<STATE> 4
<MEAN> 39
 -3.576310e+00 -1.136057e+00 2.135631e+00 4.343750e+00 9.594668e+00 7.368514e+00 2.092206e+00 4.212365e+00 7.393737e+00 3.739797e+00 2.876643e+00 1.895752e+00 5.495232e+01 5.533372e-04 8.495964e-03 7.675449e-03 4.546661e-03 5.677278e-03 6.208651e-03 7.523505e-03 6.016184e-03 4.387166e-03 5.522539e-03 9.085250e-03 9.816899e-03 -1.763422e-03 -1.637702e-03 4.354889e-03 1.239741e-03 -6.029040e-05 6.941678e-04 -9.401984e-04 3.055317e-04 -2.645794e-04 -1.033626e-03 4.088952e-04 1.600350e-03 2.342010e-03 -2.692190e-03
<VARIANCE> 39
 9.226117e+01 1.185055e+02 2.189987e+01 2.091871e+01 3.576806e+01 5.556059e+01 5.332728e+01 4.048679e+01 2.292832e+01 2.729861e+01 3.197110e+01 3.037231e+01 9.507288e+01 6.364153e-01 9.469715e-01 8.742505e-01 1.151418e+00 1.066216e+00 1.690028e+00 1.540726e+00 1.572416e+00 1.398155e+00 1.340575e+00 1.265331e+00 1.225649e+00 6.546783e-01 7.203979e-02 1.311952e-01 1.562998e-01 1.941125e-01 1.912967e-01 2.869853e-01 2.731642e-01 2.870193e-01 2.660923e-01 2.550910e-01 2.433914e-01 2.347685e-01 8.563963e-02
<GCONST> 1.002505e+02
<TRANSP> 5
 0.000000e+00 1.000000e+00 0.000000e+00 0.000000e+00 0.000000e+00
 0.000000e+00 9.797669e-01 2.023310e-02 0.000000e+00 0.000000e+00
 0.000000e+00 0.000000e+00 9.746509e-01 2.534916e-02 0.000000e+00
 0.000000e+00 0.000000e+00 0.000000e+00 9.964896e-01 3.510389e-03
 0.000000e+00 0.000000e+00 0.000000e+00 0.000000e+00 0.000000e+00
<ENDHMM>
~h "hagang"
<BEGINHMM>
<NUMSTATES> 5
<STATE> 2
<MEAN> 39
 -1.221717e+01 1.931504e+00 -4.320496e-01 1.995687e+00 1.723952e+00 2.835219e+00 2.519171e+00 3.394817e+00 4.089687e+00 4.077990e+00 4.017196e+00 2.586818e+00 4.984092e+01 1.538303e-03 7.357156e-03 -1.040500e-02 -6.421381e-03 -1.499362e-02 -2.112950e-02 -8.095245e-03 -1.362806e-02 -8.293718e-03 3.184357e-04 -6.644301e-03 -3.963452e-03 3.358680e-02 2.883804e-03 4.056403e-03 2.431803e-04 -8.530352e-04 -3.748275e-03 -5.126890e-03 -5.731398e-03 -4.405341e-03 -1.915266e-03 -1.696865e-03 -1.295520e-03 1.065216e-03 4.535932e-04
<VARIANCE> 39
 7.785677e+00 9.366141e+00 8.261675e+00 1.221568e+01 1.218160e+01 1.445951e+01 1.583509e+01 1.724829e+01 1.759840e+01 1.737170e+01 1.724293e+01 1.683126e+01 3.438293e+01 3.617877e-01 7.858210e-01 7.029049e-01 1.162215e+00 1.126308e+00 1.243070e+00 1.422305e+00 1.535002e+00 1.568504e+00 1.560738e+00 1.511695e+00 1.446243e+00 6.786798e-01 7.208379e-02 1.607064e-01 1.414403e-01 2.382868e-01 2.239776e-01 2.461036e-01 2.888820e-01 3.064653e-01 3.134677e-01 3.110833e-01 3.028193e-01 2.884208e-01 1.232056e-01
<GCONST> 8.720982e+01
<STATE> 3
<MEAN> 39
 -9.954932e+00 2.413141e+00 -8.666868e-01 1.607907e+00 5.177707e-01 1.640451e+00 1.278889e+00 2.438687e+00 3.406856e+00 2.833292e+00 2.005609e+00 8.882757e-01 4.535746e+01 1.004375e-02 1.013129e-02 8.354611e-03 -1.162865e-03 -1.382201e-02 -1.887671e-02 -1.358568e-02 -1.972644e-03 6.671372e-03 9.631494e-03 1.193699e-02 1.402623e-02 5.656232e-03 4.087868e-03 9.379939e-04 -4.609196e-04 -1.707699e-03 -2.562926e-03 -4.050549e-03 -3.553960e-03 1.568845e-04 1.032666e-03 3.027876e-04 1.031062e-03 7.825926e-04 2.813573e-03
<VARIANCE> 39
 8.560064e+00 8.009959e+00 7.375900e+00 8.799864e+00 1.086914e+01 1.270024e+01 1.513695e+01 1.584564e+01 1.676780e+01 1.739660e+01 1.822293e+01 1.709407e+01 5.409504e+00 1.065520e-01 2.255433e-01 3.890353e-01 5.819714e-01 7.760775e-01 9.637749e-01 1.131533e+00 1.256127e+00 1.319563e+00 1.344225e+00 1.285969e+00 1.227646e+00 3.282735e-02 1.970289e-02 4.481939e-02 7.818649e-02 1.180748e-01 1.558477e-01 1.946333e-01 2.289950e-01 2.573106e-01 2.694736e-01 2.753141e-01 2.630081e-01 2.526307e-01 6.049574e-03
<GCONST> 6.758696e+01
<STATE> 4
<MEAN> 39
 -5.436766e-01 1.491528e+00 2.072357e+00 1.849705e+00 1.686656e+00 -7.155113e-01 -3.670804e+00 9.315348e-01 2.661058e+00 4.330612e+00 5.600303e+00 3.022806e+00 5.641511e+01 -5.506076e-03 -1.551038e-03 3.257392e-03 6.169718e-03 8.929293e-03 9.272283e-03 6.354991e-03 2.544833e-03 9.015040e-04 2.094884e-03 3.284170e-03 4.459914e-03 -2.946082e-03 -1.563979e-03 -2.759226e-04 4.199101e-04 8.557304e-04 1.451038e-03 1.718001e-03 1.279727e-03 2.557908e-04 -1.245631e-04 -1.991939e-04 -3.378091e-04 -3.896028e-04 -9.807234e-04
<VARIANCE> 39
 8.967687e+01 3.615139e+01 2.300386e+01 2.296353e+01 2.400873e+01 5.027972e+01 8.414032e+01 4.201437e+01 3.270040e+01 2.448965e+01 2.300306e+01 2.483281e+01 1.105815e+02 5.687125e-01 6.392937e-01 7.345856e-01 8.948730e-01 1.022963e+00 1.251011e+00 1.562292e+00 1.455792e+00 1.438320e+00 1.405581e+00 1.368808e+00 1.301250e+00 3.975904e-01 6.436551e-02 9.475975e-02 1.265663e-01 1.555517e-01 1.876582e-01 2.233263e-01 2.712632e-01 2.670075e-01 2.658016e-01 2.654901e-01 2.595746e-01 2.446767e-01 4.192883e-02
<GCONST> 9.562812e+01
<TRANSP> 5
 0.000000e+00 1.000000e+00 0.000000e+00 0.000000e+00 0.000000e+00
 0.000000e+00 9.617284e-01 3.827162e-02 0.000000e+00 0.000000e+00
 0.000000e+00 0.000000e+00 9.911830e-01 8.816986e-03 0.000000e+00
 0.000000e+00 0.000000e+00 0.000000e+00 9.970672e-01 2.932805e-03
 0.000000e+00 0.000000e+00 0.000000e+00 0.000000e+00 0.000000e+00
<ENDHMM>
~h "oleunjjog"
<BEGINHMM>
<NUMSTATES> 5
<STATE> 2
<MEAN> 39
 -1.217758e+01 5.951604e-01 -1.960832e+00 9.343005e-01 9.426554e-01 2.818118e+00 2.044463e+00 2.542912e+00 3.382888e+00 3.559091e+00 2.836849e+00 1.496886e+00 5.066748e+01 -6.757106e-03 5.195800e-03 3.019021e-03 1.772400e-03 -2.035431e-03 -2.386972e-03 1.307278e-04 -2.367757e-03 6.864767e-05 -3.065861e-04 -3.879863e-03 -5.659026e-04 -6.620312e-03 -4.000650e-04 1.817556e-03 1.182921e-03 1.662395e-03 9.616504e-04 7.692655e-04 8.321961e-04 -1.061085e-05 -1.102577e-03 -1.021784e-03 1.209566e-03 2.937505e-03 -1.147133e-03
<VARIANCE> 39
 7.084391e+00 9.915186e+00 1.000308e+01 8.695578e+00 1.086038e+01 1.182382e+01 1.414727e+01 1.465528e+01 1.517109e+01 1.590098e+01 1.576802e+01 1.693654e+01 1.878343e+01 1.966638e-01 3.682409e-01 5.285349e-01 7.130526e-01 8.730711e-01 1.054181e+00 1.249338e+00 1.360171e+00 1.407031e+00 1.415181e+00 1.359675e+00 1.302551e+00 1.466703e-01 3.974327e-02 7.130712e-02 1.049610e-01 1.448363e-01 1.758836e-01 2.136876e-01 2.520317e-01 2.739559e-01 2.824923e-01 2.856966e-01 2.712258e-01 2.622421e-01 2.895286e-02
<GCONST> 7.606866e+01
<STATE> 3
<MEAN> 39
 -1.276413e+01 2.664852e+00 -7.718149e-01 1.785208e+00 1.642008e+00 3.013645e+00 2.870876e+00 3.415192e+00 4.271906e+00 4.552603e+00 4.420381e+00 3.005497e+00 4.358916e+01 -1.632939e-02 -1.702248e-03 1.637287e-02 1.478645e-02 7.232887e-03 3.441606e-03 6.293861e-03 1.239177e-02 8.945154e-03 8.909471e-03 1.642844e-02 1.814733e-02 -8.622096e-03 3.932990e-03 1.052220e-03 4.017463e-03 4.593268e-03 5.440418e-03 1.478584e-03 -2.471747e-03 -1.957996e-03 -2.167496e-03 -2.540619e-03 -3.419001e-03 -4.589857e-03 3.342120e-03
<VARIANCE> 39
 2.772726e+00 3.048286e+00 5.769895e+00 6.978378e+00 8.508433e+00 1.004320e+01 1.234136e+01 1.388134e+01 1.454679e+01 1.448571e+01 1.490536e+01 1.455725e+01 1.457206e+00 1.002615e-01 2.432982e-01 4.043287e-01 5.879824e-01 7.879909e-01 9.502185e-01 1.125362e+00 1.265338e+00 1.312362e+00 1.304761e+00 1.281454e+00 1.220410e+00 3.702912e-02 2.054457e-02 4.995451e-02 8.245813e-02 1.216438e-01 1.623579e-01 1.927754e-01 2.270936e-01 2.573362e-01 2.672487e-01 2.657260e-01 2.622017e-01 2.496513e-01 7.940896e-03
<GCONST> 6.281368e+01
<STATE> 4
<MEAN> 39
 -8.490300e-01 1.717559e+00 3.111905e+00 5.486920e+00 7.812736e+00 6.690685e+00 -4.174712e-01 -8.342335e-01 2.106014e+00 3.513525e+00 1.976417e+00 7.725309e-01 5.622940e+01 3.624054e-03 8.546098e-04 2.938638e-03 2.471538e-03 5.160361e-03 6.330101e-03 8.635856e-03 9.272430e-03 3.880901e-03 -5.772913e-04 -1.719035e-03 3.018636e-03 5.704250e-03 -9.536136e-04 -5.230656e-04 -1.269742e-03 -1.488318e-03 -1.701282e-03 -4.083219e-04 5.301309e-04 6.233285e-04 6.478343e-04 4.675903e-04 9.797714e-04 1.116294e-03 -7.690701e-04
<VARIANCE> 39
 1.059157e+02 4.846469e+01 1.591891e+01 4.795033e+01 5.673986e+01 3.475138e+01 9.496178e+01 9.505602e+01 5.184439e+01 3.993569e+01 4.173864e+01 3.479281e+01 1.079828e+02 8.638901e-01 1.187459e+00 7.646449e-01 1.194701e+00 1.282030e+00 1.287092e+00 1.687412e+00 1.721372e+00 1.657224e+00 1.459259e+00 1.629625e+00 1.299891e+00 8.240680e-01 1.119951e-01 1.669959e-01 1.427463e-01 2.052286e-01 2.081046e-01 2.353757e-01 2.822578e-01 2.891342e-01 2.920845e-01 2.642293e-01 2.907293e-01 2.407062e-01 1.042798e-01
<GCONST> 1.055804e+02
<TRANSP> 5
 0.000000e+00 1.000000e+00 0.000000e+00 0.000000e+00 0.000000e+00
 0.000000e+00 9.744446e-01 2.555549e-02 0.000000e+00 0.000000e+00
 0.000000e+00 0.000000e+00 9.907289e-01 9.271130e-03 0.000000e+00
 0.000000e+00 0.000000e+00 0.000000e+00 9.973925e-01 2.607456e-03
 0.000000e+00 0.000000e+00 0.000000e+00 0.000000e+00 0.000000e+00
<ENDHMM>
~h "oenjjog"
<BEGINHMM>
<NUMSTATES> 5
<STATE> 2
<MEAN> 39
 -1.253284e+01 6.549426e-01 -1.011422e+00 1.345718e+00 9.706554e-01 2.830019e+00 2.025744e+00 2.879787e+00 3.718976e+00 3.613524e+00 3.348646e+00 2.182841e+00 5.112066e+01 1.536419e-03 6.920946e-03 -2.814568e-03 -5.062010e-03 -1.652972e-03 1.228692e-03 -7.353360e-03 -2.988783e-03 5.145379e-03 -4.743429e-04 2.398998e-03 -1.876796e-03 -2.478454e-03 -3.929310e-05 2.844585e-03 2.562542e-03 3.128334e-03 1.482513e-03 1.489498e-03 3.203177e-03 4.993364e-03 4.424918e-03 3.281883e-03 1.214848e-03 3.360875e-03 -9.674536e-04
<VARIANCE> 39
 6.155397e+00 1.074706e+01 9.115918e+00 9.232437e+00 1.052326e+01 1.179016e+01 1.336584e+01 1.469724e+01 1.607968e+01 1.619810e+01 1.555991e+01 1.498741e+01 2.337564e+01 1.873322e-01 3.921491e-01 4.913745e-01 7.592430e-01 8.673796e-01 1.070433e+00 1.226285e+00 1.358508e+00 1.448470e+00 1.425122e+00 1.345674e+00 1.345719e+00 1.640724e-01 3.805254e-02 7.692942e-02 9.568564e-02 1.528990e-01 1.714866e-01 2.149100e-01 2.441601e-01 2.720246e-01 2.904953e-01 2.861776e-01 2.686633e-01 2.700790e-01 3.343812e-02
<GCONST> 7.633991e+01
<STATE> 3
<MEAN> 39
 -1.190717e+01 3.486085e+00 3.400865e-01 2.791414e+00 2.256704e+00 3.501712e+00 3.593199e+00 4.687643e+00 5.649642e+00 5.522665e+00 5.254015e+00 3.833251e+00 4.404587e+01 1.207131e-02 6.504184e-03 2.661628e-02 7.285309e-03 1.501238e-02 2.622648e-02 2.751964e-03 3.271819e-02 4.050942e-02 1.492200e-02 2.410552e-02 2.533860e-02 1.179405e-02 4.083703e-03 8.923588e-04 5.150166e-03 1.079539e-03 4.330909e-03 5.300884e-03 -1.940039e-03 2.741222e-03 3.606459e-03 5.110601e-05 1.576569e-03 -6.976282e-04 4.116352e-03
<VARIANCE> 39
 3.373186e+00 4.039539e+00 7.294238e+00 9.155190e+00 9.950872e+00 1.151943e+01 1.314912e+01 1.570741e+01 1.661561e+01 1.540150e+01 1.593721e+01 1.584648e+01 1.917232e+00 1.126646e-01 2.482448e-01 4.141257e-01 6.015632e-01 8.085416e-01 9.649992e-01 1.113443e+00 1.230567e+00 1.316499e+00 1.318467e+00 1.292598e+00 1.219837e+00 3.852327e-02 2.075485e-02 4.860338e-02 8.184525e-02 1.200258e-01 1.632653e-01 1.940938e-01 2.218064e-01 2.485635e-01 2.664320e-01 2.668234e-01 2.604676e-01 2.477331e-01 7.224838e-03
<GCONST> 6.495416e+01
<STATE> 4
<MEAN> 39
 -3.860918e+00 2.477968e+00 3.066900e+00 3.449719e+00 6.523674e+00 6.027976e+00 2.642300e+00 4.874871e+00 4.358697e+00 3.472421e+00 4.126582e+00 1.703478e+00 5.357037e+01 -5.495037e-03 -2.715907e-03 -4.056056e-03 3.214968e-03 1.310392e-03 -1.843442e-03 8.992664e-03 -1.250130e-03 -9.207569e-03 -2.394181e-03 -4.797001e-03 -1.703750e-03 -7.355137e-04 -1.275395e-03 -3.298899e-04 -1.531733e-03 -2.370279e-04 -1.502310e-03 -2.106923e-03 4.014074e-04 -1.212009e-03 -1.511524e-03 2.055351e-04 -1.511936e-04 1.763094e-04 -1.281478e-03
<VARIANCE> 39
 8.500780e+01 5.063686e+01 1.732810e+01 2.763045e+01 2.654101e+01 2.483092e+01 4.802002e+01 4.668287e+01 3.873261e+01 3.220715e+01 2.961283e+01 3.950867e+01 9.700867e+01 7.939243e-01 1.164810e+00 8.133085e-01 1.065790e+00 9.945071e-01 1.152189e+00 1.529299e+00 1.543561e+00 1.494638e+00 1.401918e+00 1.438013e+00 1.434211e+00 7.382008e-01 9.706435e-02 1.534570e-01 1.440865e-01 1.784717e-01 1.813892e-01 2.145372e-01 2.688956e-01 2.772396e-01 2.719046e-01 2.593263e-01 2.625870e-01 2.473037e-01 8.296479e-02
<GCONST> 9.953834e+01
<TRANSP> 5
 0.000000e+00 1.000000e+00 0.000000e+00 0.000000e+00 0.000000e+00
 0.000000e+00 9.688478e-01 3.115219e-02 0.000000e+00 0.000000e+00
 0.000000e+00 0.000000e+00 9.907537e-01 9.246313e-03 0.000000e+00
 0.000000e+00 0.000000e+00 0.000000e+00 9.969983e-01 3.001701e-03
 0.000000e+00 0.000000e+00 0.000000e+00 0.000000e+00 0.000000e+00
<ENDHMM>
